digraph Tree {
node [shape=box, style="filled, rounded", color="black", fontname="helvetica"] ;
edge [fontname="helvetica"] ;
0 [label="failures <= 0.5\nentropy = 1.0\nsamples = 519\nvalue = [254, 265]\nclass = 1", fillcolor="#f7fbfe"] ;
1 [label="higher_no <= 0.5\nentropy = 0.977\nsamples = 442\nvalue = [182, 260]\nclass = 1", fillcolor="#c4e2f7"] ;
0 -> 1 [labeldistance=2.5, labelangle=45, headlabel="True"] ;
2 [label="school_GP <= 0.5\nentropy = 0.956\nsamples = 414\nvalue = [156, 258]\nclass = 1", fillcolor="#b1d8f5"] ;
1 -> 2 ;
3 [label="absences <= 1.5\nentropy = 0.997\nsamples = 133\nvalue = [71, 62]\nclass = 0", fillcolor="#fcefe6"] ;
2 -> 3 ;
4 [label="sex_M <= 0.5\nentropy = 0.96\nsamples = 68\nvalue = [26, 42]\nclass = 1", fillcolor="#b4daf5"] ;
3 -> 4 ;
5 [label="entropy = 0.89\nsamples = 52\nvalue = [16, 36]\nclass = 1", fillcolor="#91c9f1"] ;
4 -> 5 ;
6 [label="entropy = 0.954\nsamples = 16\nvalue = [10, 6]\nclass = 0", fillcolor="#f5cdb0"] ;
4 -> 6 ;
7 [label="Walc <= 2.5\nentropy = 0.89\nsamples = 65\nvalue = [45, 20]\nclass = 0", fillcolor="#f1b991"] ;
3 -> 7 ;
8 [label="entropy = 0.995\nsamples = 35\nvalue = [19, 16]\nclass = 0", fillcolor="#fbebe0"] ;
7 -> 8 ;
9 [label="entropy = 0.567\nsamples = 30\nvalue = [26, 4]\nclass = 0", fillcolor="#e99457"] ;
7 -> 9 ;
10 [label="studytime <= 1.5\nentropy = 0.884\nsamples = 281\nvalue = [85, 196]\nclass = 1", fillcolor="#8fc8f0"] ;
2 -> 10 ;
11 [label="Fedu <= 2.5\nentropy = 0.997\nsamples = 62\nvalue = [29, 33]\nclass = 1", fillcolor="#e7f3fc"] ;
10 -> 11 ;
12 [label="entropy = 0.94\nsamples = 28\nvalue = [18, 10]\nclass = 0", fillcolor="#f3c7a7"] ;
11 -> 12 ;
13 [label="entropy = 0.908\nsamples = 34\nvalue = [11, 23]\nclass = 1", fillcolor="#98ccf1"] ;
11 -> 13 ;
14 [label="reason_other <= 0.5\nentropy = 0.82\nsamples = 219\nvalue = [56, 163]\nclass = 1", fillcolor="#7dbfee"] ;
10 -> 14 ;
15 [label="entropy = 0.84\nsamples = 208\nvalue = [56, 152]\nclass = 1", fillcolor="#82c1ef"] ;
14 -> 15 ;
16 [label="entropy = 0.0\nsamples = 11\nvalue = [0, 11]\nclass = 1", fillcolor="#399de5"] ;
14 -> 16 ;
17 [label="reason_course <= 0.5\nentropy = 0.371\nsamples = 28\nvalue = [26, 2]\nclass = 0", fillcolor="#e78b48"] ;
1 -> 17 ;
18 [label="Mjob_other <= 0.5\nentropy = 0.619\nsamples = 13\nvalue = [11, 2]\nclass = 0", fillcolor="#ea985d"] ;
17 -> 18 ;
19 [label="entropy = 0.0\nsamples = 7\nvalue = [7, 0]\nclass = 0", fillcolor="#e58139"] ;
18 -> 19 ;
20 [label="famrel <= 4.5\nentropy = 0.918\nsamples = 6\nvalue = [4, 2]\nclass = 0", fillcolor="#f2c09c"] ;
18 -> 20 ;
21 [label="entropy = 0.918\nsamples = 3\nvalue = [1, 2]\nclass = 1", fillcolor="#9ccef2"] ;
20 -> 21 ;
22 [label="entropy = 0.0\nsamples = 3\nvalue = [3, 0]\nclass = 0", fillcolor="#e58139"] ;
20 -> 22 ;
23 [label="entropy = 0.0\nsamples = 15\nvalue = [15, 0]\nclass = 0", fillcolor="#e58139"] ;
17 -> 23 ;
24 [label="Fjob_teacher <= 0.5\nentropy = 0.347\nsamples = 77\nvalue = [72, 5]\nclass = 0", fillcolor="#e78a47"] ;
0 -> 24 [labeldistance=2.5, labelangle=-45, headlabel="False"] ;
25 [label="Medu <= 1.5\nentropy = 0.297\nsamples = 76\nvalue = [72, 4]\nclass = 0", fillcolor="#e68844"] ;
24 -> 25 ;
26 [label="entropy = 0.0\nsamples = 30\nvalue = [30, 0]\nclass = 0", fillcolor="#e58139"] ;
25 -> 26 ;
27 [label="internet_no <= 0.5\nentropy = 0.426\nsamples = 46\nvalue = [42, 4]\nclass = 0", fillcolor="#e78d4c"] ;
25 -> 27 ;
28 [label="freetime <= 1.5\nentropy = 0.187\nsamples = 35\nvalue = [34, 1]\nclass = 0", fillcolor="#e6853f"] ;
27 -> 28 ;
29 [label="entropy = 0.918\nsamples = 3\nvalue = [2, 1]\nclass = 0", fillcolor="#f2c09c"] ;
28 -> 29 ;
30 [label="entropy = 0.0\nsamples = 32\nvalue = [32, 0]\nclass = 0", fillcolor="#e58139"] ;
28 -> 30 ;
31 [label="age <= 16.5\nentropy = 0.845\nsamples = 11\nvalue = [8, 3]\nclass = 0", fillcolor="#efb083"] ;
27 -> 31 ;
32 [label="entropy = 0.0\nsamples = 2\nvalue = [0, 2]\nclass = 1", fillcolor="#399de5"] ;
31 -> 32 ;
33 [label="entropy = 0.503\nsamples = 9\nvalue = [8, 1]\nclass = 0", fillcolor="#e89152"] ;
31 -> 33 ;
34 [label="entropy = 0.0\nsamples = 1\nvalue = [0, 1]\nclass = 1", fillcolor="#399de5"] ;
24 -> 34 ;
}